[{"weights":[0.014380099140342778,0.11341604837232817,1.0976265579893616,0.006736008962850979,-0.03396599531449763,0.1472907032057951,0.14848588690656478,0.803035482976364,0.02479766550417727,0.0005556575104959208,-0.07939135482738595,-0.06550626418823208,-0.9177939711044898,-0.05011406425346288,-0.07189381407008073,0.0006978132927407954,0.007486738398260318,-0.40683625597064305,-0.028866747698705023,0.024804210038362695,0.055778892084905496,0.4083037670158817,0.028441144627886637,0.012596677993242744,0.06289970589012775],"bias":-0.7624833241664003},{"weights":[0.009788210258940623,-0.8348376042918368,-0.7637547732689384,-0.021519070257159434,0.526376097072703,0.22141563494600816,0.2390830146008949,0.22137047555677036,0.023673313724303768,-0.0041572677698115965,-0.1054664476701862,-0.0942189185705393,0.11779788430861211,-0.07929923216300776,-0.12585376428135836,-0.007265997523204559,0.004812720980324829,0.38120976725770706,-0.022422279768460673,-0.5413209981064073,0.09802655629920942,0.6228795623317767,-0.043487486452283244,0.050067805219568905,0.1223997940875526],"bias":0.8352214711997937},{"weights":[-0.05838165637890008,0.5718946861890735,-0.2003994712559264,-0.05513049953228105,-1.703417970925746,-0.4372816438756725,-0.43431169959961485,-0.37809804468415104,-0.08596121736308936,-0.006460303924483402,0.2628490198732885,0.21307863025292886,-0.24191232042447616,0.12844251482128083,0.17194172389745538,-0.0010533304666756435,-0.018478066618443378,-0.7010506087199269,-0.8652668623564349,0.7516091750644354,-0.1655842985807284,-1.0918207233328898,0.7856542350754033,0.024999067714795677,-0.1374621589252017],"bias":1.2091655267947246},{"weights":[0.03178355037298634,-0.4398204696832423,-0.9734275691689747,-0.1444658801516394,1.2318307131384088,-0.13331384644826694,-0.07048651785765561,-0.09889183509626069,0.07550298472022013,-0.017883701776128413,-0.39770967315124023,-0.35492000588886874,0.4543478049343627,-0.3136691916350993,-0.5157369735283339,-0.027885338602192087,0.02444244800649595,1.5610603003894346,0.9570931114598591,-0.27074403883117826,0.3734129191139484,1.6178821469079545,-0.24948679431938825,0.21944591982514777,0.5086525630278899],"bias":-0.6662742641942427},{"weights":[-0.027274974386361867,0.8484646433288157,0.04411116184250576,-0.05114414677368041,-0.7995954692256337,-0.10831954493901372,-0.09732340075516345,0.17546052921731037,-0.0353244503233749,-0.006245342276044178,0.08412706261790295,0.06334309518342056,-0.06329440978451027,0.022206527983834583,0.01544562367065052,-0.004475282793940562,-0.006162736638741816,0.3468056833325728,0.06768217627235819,0.8206102119897212,-0.03446497258204894,-0.46185178217479234,-0.15597794861697464,0.047980230635715174,0.0022102196722253303],"bias":-0.23465840580247116},{"weights":[-0.09089511377906871,0.5529079264086221,-0.7273215647676943,0.8012640262011208,-1.8064304294488065,-0.28619322468670033,-0.23848840657730186,-0.012682796045990798,-0.11744425602739074,-0.023922609443292317,0.248172608133653,0.1796198230258305,-0.17625344977003754,0.049878466702466526,0.0055801204764896915,-0.02188114226783389,-0.022017059857535295,-1.0861957385880059,-0.7740349920364371,1.8695983533556717,-0.07687754162893559,-1.0264332459277843,1.4376828587742658,-0.8185110970828695,-0.9432249184119474],"bias":0.8487667761960807},{"weights":[0.0870166074611819,-0.8023102896482845,1.0089882093262665,-0.6573158586037575,1.5135832091041435,-0.20810343754724306,-0.2995756360142005,-0.3739593193606584,-0.9047151061687441,-0.9607722149852014,-0.04422724740773029,0.008571020788184645,-0.0757391582176193,0.13739378486581744,0.3212292074461733,0.0426642025091419,0.008360437931203708,0.47436423830624813,0.7500498387155224,-1.5689407118666292,-0.1392025710173006,0.8897400556207758,-1.1698550930173581,0.6479444923963413,0.6087447912676573],"bias":0.40828835471870895},{"weights":[0.033838444118980605,0.08735655857189073,0.6664876689905763,0.1227448290804532,0.6481391040528952,-0.04458767097011767,-0.07794675902023297,0.005690402231769192,0.03893099246694469,0.014207671077830643,-0.031140254076921083,-0.009245575922449265,-0.01011845294257396,0.0381892412937405,0.09890477734574372,0.016011041987901858,0.005269638721660981,0.09179704310330304,-0.0930526432459682,-0.6681787094963876,-0.039596848280153175,0.027524249920703295,-0.7001250436708094,-0.12174598495707362,-0.12590064634608827],"bias":0.013023425722944846},{"weights":[-0.040450773094893325,-2.00798770772193,-1.5071688273831885,0.8503287611051287,0.9103251147646532,1.1298012853482569,0.18806019403190974,-0.5937594084957089,0.9602250609803031,0.9792943253381546,-0.9985020570030433,-0.025947475435052263,1.0510168825045543,-0.07202345618932621,-0.16026849829561582,0.9723149860944319,0.9883908520285662,-0.3352759306543829,0.09514580631787037,0.09780354734899693,0.0940699442930977,0.13300608589338916,1.6137339155199097,-0.8326499709921136,-0.805011415748057],"bias":-0.4099877423597418},{"weights":[0.04775595930182519,1.846670685926183,0.9192603201699667,-0.7259494715831866,-0.7128381425979908,-0.4944738148432202,0.4046504667829144,0.5236141388093541,0.03158415952367779,0.03566797898517514,1.1353643407286935,0.15826935792487098,-0.2359954207446365,0.21863571434817938,0.4207411131774058,-0.9535317045485207,-0.9961475233602651,0.3274686650745929,-0.13344629983628978,-0.29373557081069357,-0.26165311844780925,-0.31117381544518735,-1.341968204005354,0.6739005312003716,0.5325566253446655],"bias":-0.5941537926916192}]